digraph Tree {
node [shape=box, style="filled, rounded", color="black", fontname=helvetica] ;
edge [fontname=helvetica] ;
0 [label="age <= 25.5\ngini = 0.76\nsamples = 10\nvalue = [1, 2, 1, 3, 3]", fillcolor="#ffffff"] ;
1 [label="gender <= 0.5\ngini = 0.375\nsamples = 4\nvalue = [0, 0, 1, 3, 0]", fillcolor="#7d7bee"] ;
0 -> 1 [labeldistance=2.5, labelangle=45, headlabel="True"] ;
2 [label="gini = 0.0\nsamples = 1\nvalue = [0, 0, 1, 0, 0]", fillcolor="#39e5c5"] ;
1 -> 2 ;
3 [label="gini = 0.0\nsamples = 3\nvalue = [0, 0, 0, 3, 0]", fillcolor="#3c39e5"] ;
1 -> 3 ;
4 [label="age <= 31.5\ngini = 0.611\nsamples = 6\nvalue = [1, 2, 0, 0, 3]", fillcolor="#f8ceef"] ;
0 -> 4 [labeldistance=2.5, labelangle=-45, headlabel="False"] ;
5 [label="gender <= 0.5\ngini = 0.375\nsamples = 4\nvalue = [1, 0, 0, 0, 3]", fillcolor="#ee7bd5"] ;
4 -> 5 ;
6 [label="gini = 0.0\nsamples = 1\nvalue = [1, 0, 0, 0, 0]", fillcolor="#e58139"] ;
5 -> 6 ;
7 [label="gini = 0.0\nsamples = 3\nvalue = [0, 0, 0, 0, 3]", fillcolor="#e539c0"] ;
5 -> 7 ;
8 [label="gini = 0.0\nsamples = 2\nvalue = [0, 2, 0, 0, 0]", fillcolor="#7be539"] ;
4 -> 8 ;
}